#ifndef TENSOR_APPROX
#define TENSOR_APPROX
#include "realtype.h"
#include "binomialOptions_common.h"
float weight_1[256] = {0.0112089, -0.00610945, -0.0380199, -0.000561176, 0.00187424, 0.00287767, 0.244437, 0.17475, 2.81168e-316, -0.331278, 0.659804, -0.0191001, 0.134111, 0.509382, -0.0295381, -0.497595, -1.76246, -0.0644699, 0.222051, 0.0974676, 0.00261815, -0.00261055, -0.647764, -0.230275, 3.00459e-316, 0.895986, -1.1893, 0.108755, 0.0204374, -0.418821, -1.06015, 1.20456, -0.465798, -0.0406733, 0.0226492, 0.0298028, -0.00119514, 0.00316196, 0.047534, 0.138575, 7.08013e-316, -0.0911243, 0.416722, 0.00692997, 0.17184, 0.510008, -0.498171, -0.191473, -0.560201, 0.515959, 0.462953, 0.230421, 0.349412, -0.367897, 0.505375, 0.213486, 3.68648e-315, 0.384941, -0.161624, 0.154752, 0.000299731, 0.0417973, 0.30373, 0.376901, 0.131052, -0.751268, -0.118973, -0.63875, 0.377131, -0.337068, -0.342358, -0.538905, 2.95963e-315, -0.509715, 0.342428, -0.784786, -0.491057, -0.718488, -0.345529, -1.03051, -0.00383207, 0.246158, -0.260915, 0.22955, -0.00438693, -0.025608, -0.084013, -0.323619, 3.15286e-315, 0.582433, 0.00323726, 0.0468236, -0.084476, -0.0230364, -0.0421996, -0.580062, 0.000405825, -0.669387, 0.89174, -1.31522, -0.00320235, -1.10014, 0.943131, 1.02669, 3.29707e-316, -0.142513, -0.0049758, -0.30946, -0.693112, 0.36673, 0.0992035, 0.891468, 0.00777294, 0.115745, -0.167601, 0.0867017, 0.00974677, 0.445104, 0.248811, -0.0280167, -8.86548e-317, 0.750866, 0.00595517, -0.0994656, -0.209232, 0.00675828, -0.0454942, -0.475227, -0.257024, 0.451203, 0.505001, 0.221774, -0.400502, -0.195372, 0.822979, 0.591251, 3.89561e-315, 0.736676, 0.0017817, 0.319205, 0.648734, 0.267986, 0.109851, 1.03988, 0.667159, -0.456509, -0.752756, 0.0844978, 0.268364, 0.456598, -1.06978, -0.1876, 1.78149e-315, -0.500291, -0.198858, -0.0734598, -0.0299368, -0.323689, -0.247876, -1.0741, -0.00116698, 0.134828, 0.128625, -0.118383, 0.840874, -0.00720849, -0.215386, 0.231216, -2.09314e-315, 0.296838, -0.00209359, -0.502505, 0.633145, 0.0501732, 0.434899, 0.0725019, -0.00474685, 1.20988, -0.493982, -1.21256, -1.57242, -0.00203516, 0.912691, -0.28328, -4.93536e-316, -0.199425, 0.0020624, 0.993105, -0.0249645, -0.676674, -0.820803, -0.196911, -0.00648153, -0.339766, -0.263905, 0.114893, 0.624589, -0.000918314, -0.0262458, -0.0163467, 2.75672e-315, -0.00436046, -0.00939649, 0.0826643, -0.187414, 0.113746, -0.00350205, 0.0229712, -0.365716, 0.98467, 0.832392, 0.0354419, 0.0633948, -0.226107, 0.339817, 0.738558, 5.38042e-316, 0.499432, -0.0543186, 0.670664, 0.413507, 0.712197, -0.0328982, 0.957305, 0.121425, -0.237612, -0.236366, -0.534617, 0.473344, 0.220989, -0.977866, -0.763454, -2.23331e-315, -1.01913, -0.125288, -0.445756, -0.410736, -0.416496, -0.361808, -0.618814, 0, 0, 0, 0, 0, 0, 0, 0, 0, 0, 0, 0, 0, 0, 0, 0};

float bias_1[16] = {-0.0779329, 0.2996, 0.416772, -0.0391874, 0.110761, -0.109488, 0.819261, 0.232923, -0.445041, 0.591647, -0.259094, 0.767227, 0.533787, 0.603422, 0.521555, 0.328835};

float weight_2[256] = {0.00481657, 0.0744008, -3.5378e-316, 0.0768144, -0.0480165, -0.00798449, -0.0150125, -0.0186441, -0.0102784, 0.0171309, 0.207627, -0.00840827, 0.31623, 0.0312489, 2.12159, -0.00634838, 0.439695, 0.410487, 1.69211e-315, 0.736154, 0.849819, 0.683404, 0.390874, -0.485824, -1.24429, 0.0210406, 0.277184, -1.11783, 0.162884, -0.340835, 0.185313, 0.75527, 0.0725031, 0.0908981, 2.83299e-315, -0.120454, 0.0989338, -0.38305, -0.578831, 0.483194, -0.256967, 0.785714, 0.486484, 0.659981, -0.298437, 0.452704, -0.205718, -0.823423, -0.553596, 0.643313, 3.16257e-315, -0.496943, 0.254764, 0.415918, 0.774621, -1.00501, 0.0893075, -1.08513, 0.392287, 0.397478, -0.0313104, 0.197986, 0.0177418, 1.26614, -0.969025, -0.463911, 2.88746e-315, -0.00487494, 0.247202, -0.0245053, 0.00811246, -0.021163, -1.80738, -0.0477114, 0.208523, 0.222593, 0.0145478, 1.45207, -0.00725697, -0.00388112, -0.000208481, -0.696012, 3.4356e-315, -0.251621, -0.563706, -1.4817, -0.15953, 1.04872, -0.0036456, 0.753138, -0.230426, -0.0127729, 0.0286307, 0.0240105, 0.0142747, -0.515448, -0.0520264, 0.00731995, 3.21546e-315, 0.184752, -0.218492, -0.454554, -0.896534, 0.453743, -1.35748, 0.325346, 0.115102, -1.14011, 0.880723, -0.587611, 0.535925, -1.05963, 0.272849, 0.0593955, 1.65544e-315, -0.044793, 0.210916, -0.544615, -1.05744, 0.357436, 0.482806, 0.994751, -0.0678107, 0.151705, 0.0525784, -0.154014, 0.502707, -0.929439, 2.43115e-315, -1.0071e-315, 2.84375e-316, 2.72006e-316, -9.7494e-316, -3.50398e-315, -8.37535e-316, 1.37879e-315, 1.1659e-315, 2.73256e-315, -8.83182e-316, 1.37981e-315, -6.48105e-316, -9.90559e-317, -1.45288e-315, -1.80964e-315, 0.14541, 0.633705, 2.91413e-315, 0.553134, 0.20918, 0.867813, -0.786307, -0.517888, 0.668118, -0.237793, -0.257828, 0.447792, -1.18443, 0.170704, -1.00938, 0.19641, -0.00424419, 0.108128, 1.28189e-315, 0.354893, -0.527513, -0.00937852, 0.0146745, -0.0231285, 0.0140049, -0.0656898, 1.20901, -0.00860161, 0.891916, 0.00587794, 0.426721, -0.0196037, 0.00415404, 0.486196, 1.03264e-315, -0.186659, 0.320319, 0.0379576, 0.561599, -0.369052, -0.804077, 0.100857, 0.299208, -1.14882, -0.247845, -0.744875, -0.222936, 0.661868, 0.682492, -0.0297977, 1.19513e-315, 0.761252, 0.466243, -0.314104, 1.04298, -0.377782, 0.388928, -0.0845551, 0.0366425, 0.280502, -0.113428, -0.00361161, 0.253475, 0.79113, -0.268812, 0.112954, 8.95819e-316, -0.207786, 0.0937054, 0.327486, -0.0723231, 0.328994, 0.82867, 0.341824, 0.558078, 0.483711, 0.431515, 0.410427, 1.08032, -0.205046, -0.0117404, -0.0299293, 3.20015e-315, 0.0160757, -0.084689, 0.101039, 0.0695232, 0.0958338, 0.932826, 0.0825552, -0.102451, 0.68454, 1.33567, 0.354962, 0.170709, 0.0112128, -0.144163, -0.15445, 2.6555e-315, -0.0269039, -0.271586, -0.724986, -0.0797077, 0.886417, 0.0193055, 0.835848, 0.149575, -0.264909, -1.29546, -0.0626748, -1.27468, -0.950602};


float bias_2[16] = {0.120859, 0.143489, -0.00506668, 0.306022, -0.222125, 0.0171594, 0.19229, 0.0730194, 0.120349, 0.0344691, -0.403803, 0.249194, -0.403601, -0.0330001, -0.0617008, 0.383361};

float weight_3[48] = {-0.00580006, 0.00446822, -1.5938, -0.0412213, 0.362599, -0.712582, -2.80915e-315, 3.13667e-315, -3.51881e-315, 0.442632, 0.270393, 0.960649, -0.595033, 0.548002, 0.521445, -0.000775327, 1.11195, 0.000288498, 0.0028213, 1.19993, -0.00182404, 0.00331547, 1.54018, -0.00535915, 0.00107942, 0.00486399, 2.09679, -0.170464, -1.16914, 0.0772601, 0.544699, 0.0828427, 0.0110152, -0.0138763, 0.00381827, 1.67264, 1.48126, -0.00331596, 0.000673497, 0.0120502, -0.00427668, 1.65004, 1.62324, 0.00147662, -0.00236167, 0.000576858, 1.7433, 0.00542607};
float bias_3[16] = {-0.262424, 0.194073, 0.0958202,0,0,0,0,0,0,0,0,0,0,0,0,0};


half weight_1_half[256], bias_1_half[16], weight_2_half[256], bias_2_half[16], weight_3_half[48],bias_3_half[16];



#endif
